<?xml version="1.0"?>
<opencv_storage>
<cascade>
  <stageType>BOOST</stageType>
  <featureType>HAAR</featureType>
  <height>24</height>
  <width>40</width>
  <stageParams>
    <boostType>GAB</boostType>
    <minHitRate>9.9500000476837158e-01</minHitRate>
    <maxFalseAlarm>5.0000000000000000e-01</maxFalseAlarm>
    <weightTrimRate>9.4999999999999996e-01</weightTrimRate>
    <maxDepth>1</maxDepth>
    <maxWeakCount>100</maxWeakCount></stageParams>
  <featureParams>
    <maxCatCount>0</maxCatCount>
    <featSize>1</featSize>
    <mode>BASIC</mode></featureParams>
  <stageNum>11</stageNum>
  <stages>
    <!-- stage 0 -->
    <_>
      <maxWeakCount>2</maxWeakCount>
      <stageThreshold>-9.7327396273612976e-02</stageThreshold>
      <weakClassifiers>
        <_>
          <internalNodes>
            0 -1 21 -9.4424029812216759e-03</internalNodes>
          <leafValues>
            9.4444441795349121e-01 -9.8067635297775269e-01</leafValues></_>
        <_>
          <internalNodes>
            0 -1 2 -3.5797929763793945e-01</internalNodes>
          <leafValues>
            8.8334894180297852e-01 -9.8033666610717773e-01</leafValues></_></weakClassifiers></_>
    <!-- stage 1 -->
    <_>
      <maxWeakCount>2</maxWeakCount>
      <stageThreshold>-4.2623177170753479e-01</stageThreshold>
      <weakClassifiers>
        <_>
          <internalNodes>
            0 -1 15 -2.8123950585722923e-02</internalNodes>
          <leafValues>
            6.9230771064758301e-01 -9.6078431606292725e-01</leafValues></_>
        <_>
          <internalNodes>
            0 -1 1 -3.6151963286101818e-03</internalNodes>
          <leafValues>
            5.3455251455307007e-01 -9.2871659994125366e-01</leafValues></_></weakClassifiers></_>
    <!-- stage 2 -->
    <_>
      <maxWeakCount>3</maxWeakCount>
      <stageThreshold>-9.2420822381973267e-01</stageThreshold>
      <weakClassifiers>
        <_>
          <internalNodes>
            0 -1 25 9.4871520996093750e-02</internalNodes>
          <leafValues>
            -9.0476191043853760e-01 6.3636362552642822e-01</leafValues></_>
        <_>
          <internalNodes>
            0 -1 24 1.0930994525551796e-02</internalNodes>
          <leafValues>
            -7.4922323226928711e-01 6.8999588489532471e-01</leafValues></_>
        <_>
          <internalNodes>
            0 -1 6 2.5812376290559769e-02</internalNodes>
          <leafValues>
            -6.7659771442413330e-01 7.2977691888809204e-01</leafValues></_></weakClassifiers></_>
    <!-- stage 3 -->
    <_>
      <maxWeakCount>3</maxWeakCount>
      <stageThreshold>-1.3214143514633179e+00</stageThreshold>
      <weakClassifiers>
        <_>
          <internalNodes>
            0 -1 11 -5.1185429096221924e-02</internalNodes>
          <leafValues>
            2.6923078298568726e-01 -9.5811516046524048e-01</leafValues></_>
        <_>
          <internalNodes>
            0 -1 18 6.3663069158792496e-03</internalNodes>
          <leafValues>
            -7.6388061046600342e-01 5.7808578014373779e-01</leafValues></_>
        <_>
          <internalNodes>
            0 -1 9 -1.6115105245262384e-04</internalNodes>
          <leafValues>
            4.0058147907257080e-01 -1.</leafValues></_></weakClassifiers></_>
    <!-- stage 4 -->
    <_>
      <maxWeakCount>3</maxWeakCount>
      <stageThreshold>-1.0933449268341064e+00</stageThreshold>
      <weakClassifiers>
        <_>
          <internalNodes>
            0 -1 12 3.0986800789833069e-02</internalNodes>
          <leafValues>
            -8.9671361446380615e-01 7.3333334922790527e-01</leafValues></_>
        <_>
          <internalNodes>
            0 -1 19 -1.0099971666932106e-02</internalNodes>
          <leafValues>
            6.8890184164047241e-01 -7.7798318862915039e-01</leafValues></_>
        <_>
          <internalNodes>
            0 -1 26 5.8298353105783463e-03</internalNodes>
          <leafValues>
            -8.8553315401077271e-01 5.8416950702667236e-01</leafValues></_></weakClassifiers></_>
    <!-- stage 5 -->
    <_>
      <maxWeakCount>3</maxWeakCount>
      <stageThreshold>-1.2513923645019531e+00</stageThreshold>
      <weakClassifiers>
        <_>
          <internalNodes>
            0 -1 23 3.2115299254655838e-03</internalNodes>
          <leafValues>
            -8.8405799865722656e-01 3.8888889551162720e-01</leafValues></_>
        <_>
          <internalNodes>
            0 -1 13 -2.5139587000012398e-02</internalNodes>
          <leafValues>
            8.9659410715103149e-01 -7.1689820289611816e-01</leafValues></_>
        <_>
          <internalNodes>
            0 -1 27 -4.3999037006869912e-04</internalNodes>
          <leafValues>
            4.6724513173103333e-01 -9.2338299751281738e-01</leafValues></_></weakClassifiers></_>
    <!-- stage 6 -->
    <_>
      <maxWeakCount>2</maxWeakCount>
      <stageThreshold>-4.3362775444984436e-01</stageThreshold>
      <weakClassifiers>
        <_>
          <internalNodes>
            0 -1 20 -2.8766739368438721e-01</internalNodes>
          <leafValues>
            1. -8.1497794389724731e-01</leafValues></_>
        <_>
          <internalNodes>
            0 -1 7 1.5516897663474083e-02</internalNodes>
          <leafValues>
            -1. 3.8135021924972534e-01</leafValues></_></weakClassifiers></_>
    <!-- stage 7 -->
    <_>
      <maxWeakCount>2</maxWeakCount>
      <stageThreshold>-4.2151829600334167e-01</stageThreshold>
      <weakClassifiers>
        <_>
          <internalNodes>
            0 -1 10 7.2272092103958130e-02</internalNodes>
          <leafValues>
            -8.9320385456085205e-01 4.0540540218353271e-01</leafValues></_>
        <_>
          <internalNodes>
            0 -1 17 -2.1266790572553873e-03</internalNodes>
          <leafValues>
            5.0617241859436035e-01 -8.2692366838455200e-01</leafValues></_></weakClassifiers></_>
    <!-- stage 8 -->
    <_>
      <maxWeakCount>4</maxWeakCount>
      <stageThreshold>-9.0506833791732788e-01</stageThreshold>
      <weakClassifiers>
        <_>
          <internalNodes>
            0 -1 3 -6.9000832736492157e-02</internalNodes>
          <leafValues>
            1. -8.1497794389724731e-01</leafValues></_>
        <_>
          <internalNodes>
            0 -1 0 -2.2229117155075073e-01</internalNodes>
          <leafValues>
            4.0719500184059143e-01 -9.3927973508834839e-01</leafValues></_>
        <_>
          <internalNodes>
            0 -1 16 -3.2138288021087646e-02</internalNodes>
          <leafValues>
            -8.6260032653808594e-01 5.7361865043640137e-01</leafValues></_>
        <_>
          <internalNodes>
            0 -1 28 -2.7623982532531954e-05</internalNodes>
          <leafValues>
            3.6531496047973633e-01 -1.</leafValues></_></weakClassifiers></_>
    <!-- stage 9 -->
    <_>
      <maxWeakCount>3</maxWeakCount>
      <stageThreshold>-1.4585623741149902e+00</stageThreshold>
      <weakClassifiers>
        <_>
          <internalNodes>
            0 -1 22 1.3587130606174469e-01</internalNodes>
          <leafValues>
            -8.6238533258438110e-01 7.5999999046325684e-01</leafValues></_>
        <_>
          <internalNodes>
            0 -1 4 -2.9529500752687454e-03</internalNodes>
          <leafValues>
            -9.3104118108749390e-01 2.5527688860893250e-01</leafValues></_>
        <_>
          <internalNodes>
            0 -1 29 -8.7372586131095886e-03</internalNodes>
          <leafValues>
            3.3486413955688477e-01 -1.</leafValues></_></weakClassifiers></_>
    <!-- stage 10 -->
    <_>
      <maxWeakCount>3</maxWeakCount>
      <stageThreshold>-9.9710506200790405e-01</stageThreshold>
      <weakClassifiers>
        <_>
          <internalNodes>
            0 -1 5 3.1807519495487213e-02</internalNodes>
          <leafValues>
            -8.3928573131561279e-01 1.</leafValues></_>
        <_>
          <internalNodes>
            0 -1 8 -3.2730200327932835e-03</internalNodes>
          <leafValues>
            9.3966341018676758e-01 -7.2773462533950806e-01</leafValues></_>
        <_>
          <internalNodes>
            0 -1 14 7.4740557465702295e-04</internalNodes>
          <leafValues>
            5.6991529464721680e-01 -1.</leafValues></_></weakClassifiers></_></stages>
  <features>
    <_>
      <rects>
        <_>
          1 0 22 18 -1.</_>
        <_>
          1 6 22 6 3.</_></rects>
      <tilted>0</tilted></_>
    <_>
      <rects>
        <_>
          1 9 7 3 -1.</_>
        <_>
          1 10 7 1 3.</_></rects>
      <tilted>0</tilted></_>
    <_>
      <rects>
        <_>
          3 0 37 18 -1.</_>
        <_>
          3 6 37 6 3.</_></rects>
      <tilted>0</tilted></_>
    <_>
      <rects>
        <_>
          4 1 30 4 -1.</_>
        <_>
          14 1 10 4 3.</_></rects>
      <tilted>0</tilted></_>
    <_>
      <rects>
        <_>
          4 7 28 6 -1.</_>
        <_>
          4 7 14 3 2.</_>
        <_>
          18 10 14 3 2.</_></rects>
      <tilted>0</tilted></_>
    <_>
      <rects>
        <_>
          5 4 18 10 -1.</_>
        <_>
          5 4 9 5 2.</_>
        <_>
          14 9 9 5 2.</_></rects>
      <tilted>0</tilted></_>
    <_>
      <rects>
        <_>
          6 3 16 4 -1.</_>
        <_>
          14 3 8 4 2.</_></rects>
      <tilted>0</tilted></_>
    <_>
      <rects>
        <_>
          7 0 30 2 -1.</_>
        <_>
          17 0 10 2 3.</_></rects>
      <tilted>0</tilted></_>
    <_>
      <rects>
        <_>
          8 9 8 2 -1.</_>
        <_>
          8 9 4 1 2.</_>
        <_>
          12 10 4 1 2.</_></rects>
      <tilted>0</tilted></_>
    <_>
      <rects>
        <_>
          9 21 22 2 -1.</_>
        <_>
          9 22 22 1 2.</_></rects>
      <tilted>0</tilted></_>
    <_>
      <rects>
        <_>
          14 2 7 16 -1.</_>
        <_>
          14 10 7 8 2.</_></rects>
      <tilted>0</tilted></_>
    <_>
      <rects>
        <_>
          15 0 18 12 -1.</_>
        <_>
          15 4 18 4 3.</_></rects>
      <tilted>0</tilted></_>
    <_>
      <rects>
        <_>
          15 3 3 14 -1.</_>
        <_>
          15 10 3 7 2.</_></rects>
      <tilted>0</tilted></_>
    <_>
      <rects>
        <_>
          16 1 5 9 -1.</_>
        <_>
          16 4 5 3 3.</_></rects>
      <tilted>0</tilted></_>
    <_>
      <rects>
        <_>
          16 12 4 2 -1.</_>
        <_>
          16 13 4 1 2.</_></rects>
      <tilted>0</tilted></_>
    <_>
      <rects>
        <_>
          18 9 22 2 -1.</_>
        <_>
          29 9 11 2 2.</_></rects>
      <tilted>0</tilted></_>
    <_>
      <rects>
        <_>
          19 3 9 15 -1.</_>
        <_>
          19 8 9 5 3.</_></rects>
      <tilted>0</tilted></_>
    <_>
      <rects>
        <_>
          19 9 7 2 -1.</_>
        <_>
          19 10 7 1 2.</_></rects>
      <tilted>0</tilted></_>
    <_>
      <rects>
        <_>
          23 4 6 8 -1.</_>
        <_>
          23 4 3 4 2.</_>
        <_>
          26 8 3 4 2.</_></rects>
      <tilted>0</tilted></_>
    <_>
      <rects>
        <_>
          25 1 4 6 -1.</_>
        <_>
          25 4 4 3 2.</_></rects>
      <tilted>0</tilted></_>
    <_>
      <rects>
        <_>
          26 1 13 15 -1.</_>
        <_>
          26 6 13 5 3.</_></rects>
      <tilted>0</tilted></_>
    <_>
      <rects>
        <_>
          27 9 12 3 -1.</_>
        <_>
          27 10 12 1 3.</_></rects>
      <tilted>0</tilted></_>
    <_>
      <rects>
        <_>
          29 6 8 14 -1.</_>
        <_>
          29 13 8 7 2.</_></rects>
      <tilted>0</tilted></_>
    <_>
      <rects>
        <_>
          30 0 3 9 -1.</_>
        <_>
          31 0 1 9 3.</_></rects>
      <tilted>0</tilted></_>
    <_>
      <rects>
        <_>
          31 10 9 2 -1.</_>
        <_>
          31 11 9 1 2.</_></rects>
      <tilted>0</tilted></_>
    <_>
      <rects>
        <_>
          33 6 5 16 -1.</_>
        <_>
          33 14 5 8 2.</_></rects>
      <tilted>0</tilted></_>
    <_>
      <rects>
        <_>
          33 10 1 12 -1.</_>
        <_>
          33 16 1 6 2.</_></rects>
      <tilted>0</tilted></_>
    <_>
      <rects>
        <_>
          35 9 2 8 -1.</_>
        <_>
          36 9 1 8 2.</_></rects>
      <tilted>0</tilted></_>
    <_>
      <rects>
        <_>
          37 23 2 1 -1.</_>
        <_>
          38 23 1 1 2.</_></rects>
      <tilted>0</tilted></_>
    <_>
      <rects>
        <_>
          39 2 1 15 -1.</_>
        <_>
          39 7 1 5 3.</_></rects>
      <tilted>0</tilted></_></features></cascade>
</opencv_storage>
