<?xml version="1.0"?>
<opencv_storage>
<cascade>
  <stageType>BOOST</stageType>
  <featureType>HAAR</featureType>
  <height>24</height>
  <width>40</width>
  <stageParams>
    <boostType>GAB</boostType>
    <minHitRate>9.9500000476837158e-01</minHitRate>
    <maxFalseAlarm>5.0000000000000000e-01</maxFalseAlarm>
    <weightTrimRate>9.4999999999999996e-01</weightTrimRate>
    <maxDepth>1</maxDepth>
    <maxWeakCount>100</maxWeakCount></stageParams>
  <featureParams>
    <maxCatCount>0</maxCatCount>
    <featSize>1</featSize>
    <mode>BASIC</mode></featureParams>
  <stageNum>14</stageNum>
  <stages>
    <!-- stage 0 -->
    <_>
      <maxWeakCount>2</maxWeakCount>
      <stageThreshold>-2.8177380561828613e-01</stageThreshold>
      <weakClassifiers>
        <_>
          <internalNodes>
            0 -1 28 -9.4424029812216759e-03</internalNodes>
          <leafValues>
            9.4444441795349121e-01 -9.6172249317169189e-01</leafValues></_>
        <_>
          <internalNodes>
            0 -1 2 -1.6684150695800781e-01</internalNodes>
          <leafValues>
            6.7994868755340576e-01 -1.</leafValues></_></weakClassifiers></_>
    <!-- stage 1 -->
    <_>
      <maxWeakCount>3</maxWeakCount>
      <stageThreshold>-1.0834733247756958e+00</stageThreshold>
      <weakClassifiers>
        <_>
          <internalNodes>
            0 -1 38 -4.3835602700710297e-02</internalNodes>
          <leafValues>
            7.8378379344940186e-01 -9.4230771064758301e-01</leafValues></_>
        <_>
          <internalNodes>
            0 -1 23 -1.9900226965546608e-02</internalNodes>
          <leafValues>
            8.0528897047042847e-01 -8.1294322013854980e-01</leafValues></_>
        <_>
          <internalNodes>
            0 -1 5 1.6023612022399902e-01</internalNodes>
          <leafValues>
            -7.4612689018249512e-01 6.7177754640579224e-01</leafValues></_></weakClassifiers></_>
    <!-- stage 2 -->
    <_>
      <maxWeakCount>3</maxWeakCount>
      <stageThreshold>-1.3288370370864868e+00</stageThreshold>
      <weakClassifiers>
        <_>
          <internalNodes>
            0 -1 34 6.5591842867434025e-03</internalNodes>
          <leafValues>
            -8.8018435239791870e-01 8.5714286565780640e-01</leafValues></_>
        <_>
          <internalNodes>
            0 -1 9 6.6327527165412903e-03</internalNodes>
          <leafValues>
            -8.7988215684890747e-01 4.6156564354896545e-01</leafValues></_>
        <_>
          <internalNodes>
            0 -1 27 -1.1486064642667770e-02</internalNodes>
          <leafValues>
            5.5391550064086914e-01 -9.1021835803985596e-01</leafValues></_></weakClassifiers></_>
    <!-- stage 3 -->
    <_>
      <maxWeakCount>3</maxWeakCount>
      <stageThreshold>-8.5061913728713989e-01</stageThreshold>
      <weakClassifiers>
        <_>
          <internalNodes>
            0 -1 36 1.1459985375404358e-01</internalNodes>
          <leafValues>
            -8.7735849618911743e-01 5.7575756311416626e-01</leafValues></_>
        <_>
          <internalNodes>
            0 -1 0 -4.9615730531513691e-03</internalNodes>
          <leafValues>
            8.1397956609725952e-01 -6.8138587474822998e-01</leafValues></_>
        <_>
          <internalNodes>
            0 -1 19 6.8507328629493713e-02</internalNodes>
          <leafValues>
            -7.8724020719528198e-01 7.1213650703430176e-01</leafValues></_></weakClassifiers></_>
    <!-- stage 4 -->
    <_>
      <maxWeakCount>3</maxWeakCount>
      <stageThreshold>-9.5382100343704224e-01</stageThreshold>
      <weakClassifiers>
        <_>
          <internalNodes>
            0 -1 33 1.2726533412933350e-01</internalNodes>
          <leafValues>
            -8.7559807300567627e-01 4.4444444775581360e-01</leafValues></_>
        <_>
          <internalNodes>
            0 -1 8 5.5065773427486420e-02</internalNodes>
          <leafValues>
            -5.8908152580261230e-01 8.9713013172149658e-01</leafValues></_>
        <_>
          <internalNodes>
            0 -1 39 -2.0101130940020084e-03</internalNodes>
          <leafValues>
            5.1085859537124634e-01 -8.6244374513626099e-01</leafValues></_></weakClassifiers></_>
    <!-- stage 5 -->
    <_>
      <maxWeakCount>3</maxWeakCount>
      <stageThreshold>-1.0939624309539795e+00</stageThreshold>
      <weakClassifiers>
        <_>
          <internalNodes>
            0 -1 29 1.6801888123154640e-02</internalNodes>
          <leafValues>
            -8.7559807300567627e-01 4.4444444775581360e-01</leafValues></_>
        <_>
          <internalNodes>
            0 -1 7 3.8177025318145752e-01</internalNodes>
          <leafValues>
            -6.3486945629119873e-01 7.3912256956100464e-01</leafValues></_>
        <_>
          <internalNodes>
            0 -1 1 1.1400700168451294e-04</internalNodes>
          <leafValues>
            4.1650509834289551e-01 -9.3969124555587769e-01</leafValues></_></weakClassifiers></_>
    <!-- stage 6 -->
    <_>
      <maxWeakCount>3</maxWeakCount>
      <stageThreshold>-1.2338527441024780e+00</stageThreshold>
      <weakClassifiers>
        <_>
          <internalNodes>
            0 -1 26 2.1520209312438965e-01</internalNodes>
          <leafValues>
            -9.0384614467620850e-01 5.6756758689880371e-01</leafValues></_>
        <_>
          <internalNodes>
            0 -1 24 3.0691079795360565e-02</internalNodes>
          <leafValues>
            -7.0254361629486084e-01 5.9834551811218262e-01</leafValues></_>
        <_>
          <internalNodes>
            0 -1 20 8.9247024152427912e-04</internalNodes>
          <leafValues>
            -9.2835217714309692e-01 4.0025717020034790e-01</leafValues></_></weakClassifiers></_>
    <!-- stage 7 -->
    <_>
      <maxWeakCount>3</maxWeakCount>
      <stageThreshold>-9.0928000211715698e-01</stageThreshold>
      <weakClassifiers>
        <_>
          <internalNodes>
            0 -1 15 3.0910778790712357e-02</internalNodes>
          <leafValues>
            -8.7793427705764771e-01 6.2500000000000000e-01</leafValues></_>
        <_>
          <internalNodes>
            0 -1 16 5.4393276572227478e-02</internalNodes>
          <leafValues>
            -5.7915771007537842e-01 1.</leafValues></_>
        <_>
          <internalNodes>
            0 -1 25 5.1368088461458683e-03</internalNodes>
          <leafValues>
            -7.9730093479156494e-01 5.4781198501586914e-01</leafValues></_></weakClassifiers></_>
    <!-- stage 8 -->
    <_>
      <maxWeakCount>3</maxWeakCount>
      <stageThreshold>-1.1741693019866943e+00</stageThreshold>
      <weakClassifiers>
        <_>
          <internalNodes>
            0 -1 32 5.1518324762582779e-02</internalNodes>
          <leafValues>
            -8.4545457363128662e-01 7.5999999046325684e-01</leafValues></_>
        <_>
          <internalNodes>
            0 -1 6 -2.6529181748628616e-02</internalNodes>
          <leafValues>
            5.6262105703353882e-01 -7.2872906923294067e-01</leafValues></_>
        <_>
          <internalNodes>
            0 -1 10 6.1152684502303600e-03</internalNodes>
          <leafValues>
            -8.9133572578430176e-01 4.6622771024703979e-01</leafValues></_></weakClassifiers></_>
    <!-- stage 9 -->
    <_>
      <maxWeakCount>3</maxWeakCount>
      <stageThreshold>-1.2901633977890015e+00</stageThreshold>
      <weakClassifiers>
        <_>
          <internalNodes>
            0 -1 14 5.6946888566017151e-02</internalNodes>
          <leafValues>
            -9.0099012851715088e-01 3.4883719682693481e-01</leafValues></_>
        <_>
          <internalNodes>
            0 -1 22 4.8164306208491325e-03</internalNodes>
          <leafValues>
            -7.6087033748626709e-01 3.9066699147224426e-01</leafValues></_>
        <_>
          <internalNodes>
            0 -1 17 5.7433499023318291e-04</internalNodes>
          <leafValues>
            3.7169706821441650e-01 -9.7604238986968994e-01</leafValues></_></weakClassifiers></_>
    <!-- stage 10 -->
    <_>
      <maxWeakCount>3</maxWeakCount>
      <stageThreshold>-1.0597804784774780e+00</stageThreshold>
      <weakClassifiers>
        <_>
          <internalNodes>
            0 -1 30 -1.4675253629684448e-01</internalNodes>
          <leafValues>
            1. -7.9912662506103516e-01</leafValues></_>
        <_>
          <internalNodes>
            0 -1 4 2.8720162808895111e-03</internalNodes>
          <leafValues>
            -7.2989642620086670e-01 6.8017464876174927e-01</leafValues></_>
        <_>
          <internalNodes>
            0 -1 13 -3.0773434787988663e-02</internalNodes>
          <leafValues>
            5.0705641508102417e-01 -9.4082850217819214e-01</leafValues></_></weakClassifiers></_>
    <!-- stage 11 -->
    <_>
      <maxWeakCount>3</maxWeakCount>
      <stageThreshold>-1.2741534709930420e+00</stageThreshold>
      <weakClassifiers>
        <_>
          <internalNodes>
            0 -1 3 -5.1602926105260849e-02</internalNodes>
          <leafValues>
            1. -7.9912662506103516e-01</leafValues></_>
        <_>
          <internalNodes>
            0 -1 11 1.6200594604015350e-02</internalNodes>
          <leafValues>
            -9.3739074468612671e-01 3.4477522969245911e-01</leafValues></_>
        <_>
          <internalNodes>
            0 -1 21 1.1770513374358416e-03</internalNodes>
          <leafValues>
            -8.1980204582214355e-01 5.9026068449020386e-01</leafValues></_></weakClassifiers></_>
    <!-- stage 12 -->
    <_>
      <maxWeakCount>3</maxWeakCount>
      <stageThreshold>-1.1060829162597656e+00</stageThreshold>
      <weakClassifiers>
        <_>
          <internalNodes>
            0 -1 18 -3.0415238812565804e-02</internalNodes>
          <leafValues>
            8.8888889551162720e-01 -8.0616742372512817e-01</leafValues></_>
        <_>
          <internalNodes>
            0 -1 35 -2.0045572891831398e-03</internalNodes>
          <leafValues>
            5.0901043415069580e-01 -8.4530329704284668e-01</leafValues></_>
        <_>
          <internalNodes>
            0 -1 40 -2.1174456924200058e-03</internalNodes>
          <leafValues>
            5.8540987968444824e-01 -8.0892604589462280e-01</leafValues></_></weakClassifiers></_>
    <!-- stage 13 -->
    <_>
      <maxWeakCount>3</maxWeakCount>
      <stageThreshold>-1.0688395500183105e+00</stageThreshold>
      <weakClassifiers>
        <_>
          <internalNodes>
            0 -1 37 -7.2571083903312683e-02</internalNodes>
          <leafValues>
            1. -8.2300883531570435e-01</leafValues></_>
        <_>
          <internalNodes>
            0 -1 31 6.2114684842526913e-03</internalNodes>
          <leafValues>
            -8.0218714475631714e-01 6.5993392467498779e-01</leafValues></_>
        <_>
          <internalNodes>
            0 -1 12 5.1935445517301559e-03</internalNodes>
          <leafValues>
            -1. 5.5635643005371094e-01</leafValues></_></weakClassifiers></_></stages>
  <features>
    <_>
      <rects>
        <_>
          0 9 5 3 -1.</_>
        <_>
          0 10 5 1 3.</_></rects>
      <tilted>0</tilted></_>
    <_>
      <rects>
        <_>
          0 20 2 4 -1.</_>
        <_>
          0 22 2 2 2.</_></rects>
      <tilted>0</tilted></_>
    <_>
      <rects>
        <_>
          2 0 33 18 -1.</_>
        <_>
          2 6 33 6 3.</_></rects>
      <tilted>0</tilted></_>
    <_>
      <rects>
        <_>
          2 3 33 2 -1.</_>
        <_>
          13 3 11 2 3.</_></rects>
      <tilted>0</tilted></_>
    <_>
      <rects>
        <_>
          3 8 6 2 -1.</_>
        <_>
          5 8 2 2 3.</_></rects>
      <tilted>0</tilted></_>
    <_>
      <rects>
        <_>
          5 0 33 14 -1.</_>
        <_>
          16 0 11 14 3.</_></rects>
      <tilted>0</tilted></_>
    <_>
      <rects>
        <_>
          5 1 20 20 -1.</_>
        <_>
          5 1 10 10 2.</_>
        <_>
          15 11 10 10 2.</_></rects>
      <tilted>0</tilted></_>
    <_>
      <rects>
        <_>
          5 3 29 20 -1.</_>
        <_>
          5 13 29 10 2.</_></rects>
      <tilted>0</tilted></_>
    <_>
      <rects>
        <_>
          7 3 15 13 -1.</_>
        <_>
          12 3 5 13 3.</_></rects>
      <tilted>0</tilted></_>
    <_>
      <rects>
        <_>
          7 10 32 3 -1.</_>
        <_>
          7 11 32 1 3.</_></rects>
      <tilted>0</tilted></_>
    <_>
      <rects>
        <_>
          8 10 17 2 -1.</_>
        <_>
          8 11 17 1 2.</_></rects>
      <tilted>0</tilted></_>
    <_>
      <rects>
        <_>
          10 10 30 2 -1.</_>
        <_>
          10 11 30 1 2.</_></rects>
      <tilted>0</tilted></_>
    <_>
      <rects>
        <_>
          10 12 28 10 -1.</_>
        <_>
          10 12 14 5 2.</_>
        <_>
          24 17 14 5 2.</_></rects>
      <tilted>0</tilted></_>
    <_>
      <rects>
        <_>
          13 0 26 12 -1.</_>
        <_>
          13 4 26 4 3.</_></rects>
      <tilted>0</tilted></_>
    <_>
      <rects>
        <_>
          14 0 18 13 -1.</_>
        <_>
          20 0 6 13 3.</_></rects>
      <tilted>0</tilted></_>
    <_>
      <rects>
        <_>
          15 3 3 14 -1.</_>
        <_>
          15 10 3 7 2.</_></rects>
      <tilted>0</tilted></_>
    <_>
      <rects>
        <_>
          19 5 9 12 -1.</_>
        <_>
          22 5 3 12 3.</_></rects>
      <tilted>0</tilted></_>
    <_>
      <rects>
        <_>
          21 0 16 2 -1.</_>
        <_>
          21 0 8 1 2.</_>
        <_>
          29 1 8 1 2.</_></rects>
      <tilted>0</tilted></_>
    <_>
      <rects>
        <_>
          21 4 16 4 -1.</_>
        <_>
          21 4 8 2 2.</_>
        <_>
          29 6 8 2 2.</_></rects>
      <tilted>0</tilted></_>
    <_>
      <rects>
        <_>
          22 7 18 16 -1.</_>
        <_>
          22 7 9 8 2.</_>
        <_>
          31 15 9 8 2.</_></rects>
      <tilted>0</tilted></_>
    <_>
      <rects>
        <_>
          22 10 4 10 -1.</_>
        <_>
          22 15 4 5 2.</_></rects>
      <tilted>0</tilted></_>
    <_>
      <rects>
        <_>
          23 1 2 16 -1.</_>
        <_>
          23 1 1 8 2.</_>
        <_>
          24 9 1 8 2.</_></rects>
      <tilted>0</tilted></_>
    <_>
      <rects>
        <_>
          23 5 6 6 -1.</_>
        <_>
          23 5 3 3 2.</_>
        <_>
          26 8 3 3 2.</_></rects>
      <tilted>0</tilted></_>
    <_>
      <rects>
        <_>
          23 8 12 3 -1.</_>
        <_>
          29 8 6 3 2.</_></rects>
      <tilted>0</tilted></_>
    <_>
      <rects>
        <_>
          24 2 16 5 -1.</_>
        <_>
          32 2 8 5 2.</_></rects>
      <tilted>0</tilted></_>
    <_>
      <rects>
        <_>
          24 3 15 4 -1.</_>
        <_>
          29 3 5 4 3.</_></rects>
      <tilted>0</tilted></_>
    <_>
      <rects>
        <_>
          24 5 16 16 -1.</_>
        <_>
          24 13 16 8 2.</_></rects>
      <tilted>0</tilted></_>
    <_>
      <rects>
        <_>
          26 0 5 12 -1.</_>
        <_>
          26 4 5 4 3.</_></rects>
      <tilted>0</tilted></_>
    <_>
      <rects>
        <_>
          27 9 12 3 -1.</_>
        <_>
          27 10 12 1 3.</_></rects>
      <tilted>0</tilted></_>
    <_>
      <rects>
        <_>
          27 10 13 2 -1.</_>
        <_>
          27 11 13 1 2.</_></rects>
      <tilted>0</tilted></_>
    <_>
      <rects>
        <_>
          29 0 5 18 -1.</_>
        <_>
          29 6 5 6 3.</_></rects>
      <tilted>0</tilted></_>
    <_>
      <rects>
        <_>
          30 8 6 16 -1.</_>
        <_>
          33 8 3 16 2.</_></rects>
      <tilted>0</tilted></_>
    <_>
      <rects>
        <_>
          31 6 4 10 -1.</_>
        <_>
          31 11 4 5 2.</_></rects>
      <tilted>0</tilted></_>
    <_>
      <rects>
        <_>
          31 7 8 14 -1.</_>
        <_>
          31 14 8 7 2.</_></rects>
      <tilted>0</tilted></_>
    <_>
      <rects>
        <_>
          31 10 4 2 -1.</_>
        <_>
          31 11 4 1 2.</_></rects>
      <tilted>0</tilted></_>
    <_>
      <rects>
        <_>
          32 1 3 6 -1.</_>
        <_>
          33 1 1 6 3.</_></rects>
      <tilted>0</tilted></_>
    <_>
      <rects>
        <_>
          32 6 6 16 -1.</_>
        <_>
          32 14 6 8 2.</_></rects>
      <tilted>0</tilted></_>
    <_>
      <rects>
        <_>
          33 1 6 12 -1.</_>
        <_>
          33 7 6 6 2.</_></rects>
      <tilted>0</tilted></_>
    <_>
      <rects>
        <_>
          35 4 4 12 -1.</_>
        <_>
          35 8 4 4 3.</_></rects>
      <tilted>0</tilted></_>
    <_>
      <rects>
        <_>
          36 13 4 11 -1.</_>
        <_>
          38 13 2 11 2.</_></rects>
      <tilted>0</tilted></_>
    <_>
      <rects>
        <_>
          38 9 2 3 -1.</_>
        <_>
          38 10 2 1 3.</_></rects>
      <tilted>0</tilted></_></features></cascade>
</opencv_storage>
